epoch,step,min,max,mean,std
1,1000,-0.09472647309303284,-0.09472647309303284,-0.09472647309303284,0.0
2,2000,0.03561796247959137,0.03561796247959137,0.03561796247959137,0.0
3,3000,-0.013473978266119957,-0.013473978266119957,-0.013473978266119957,0.0
4,4000,0.35260456800460815,0.35260456800460815,0.35260456800460815,0.0
5,5000,-0.01615258678793907,-0.01615258678793907,-0.01615258678793907,0.0
6,6000,-0.03667477145791054,-0.03667477145791054,-0.03667477145791054,0.0
7,7000,-0.06437142938375473,-0.06437142938375473,-0.06437142938375473,0.0
8,8000,-0.014413547702133656,-0.014413547702133656,-0.014413547702133656,0.0
9,9000,-0.011852830648422241,-0.011852830648422241,-0.011852830648422241,0.0
10,10000,0.00021782703697681427,0.00021782703697681427,0.00021782703697681427,0.0
11,11000,-0.03008255921304226,-0.03008255921304226,-0.03008255921304226,0.0
12,12000,-0.022978901863098145,-0.022978901863098145,-0.022978901863098145,0.0
13,13000,0.011257313191890717,0.011257313191890717,0.011257313191890717,0.0
14,14000,0.2050296515226364,0.2050296515226364,0.2050296515226364,0.0
15,15000,-0.06434939801692963,-0.06434939801692963,-0.06434939801692963,0.0
16,16000,0.32229477167129517,0.32229477167129517,0.32229477167129517,0.0
17,17000,-0.03418952599167824,-0.03418952599167824,-0.03418952599167824,0.0
18,18000,0.04880300909280777,0.04880300909280777,0.04880300909280777,0.0
19,19000,-0.07173910737037659,-0.07173910737037659,-0.07173910737037659,0.0
20,20000,-0.12163987755775452,-0.12163987755775452,-0.12163987755775452,0.0
21,21000,-0.054606709629297256,-0.054606709629297256,-0.054606709629297256,0.0
22,22000,0.23563960194587708,0.23563960194587708,0.23563960194587708,0.0
23,23000,0.16221001744270325,0.16221001744270325,0.16221001744270325,0.0
24,24000,-0.2325461208820343,-0.2325461208820343,-0.2325461208820343,0.0
25,25000,-0.2151312679052353,-0.2151312679052353,-0.2151312679052353,0.0
26,26000,0.23700997233390808,0.23700997233390808,0.23700997233390808,0.0
27,27000,0.018657060340046883,0.018657060340046883,0.018657060340046883,0.0
28,28000,-0.5995509028434753,-0.5995509028434753,-0.5995509028434753,0.0
29,29000,-0.48476505279541016,-0.48476505279541016,-0.48476505279541016,0.0
30,30000,-0.13303712010383606,-0.13303712010383606,-0.13303712010383606,0.0
31,31000,-0.30804556608200073,-0.30804556608200073,-0.30804556608200073,0.0
32,32000,0.6530088782310486,0.6530088782310486,0.6530088782310486,0.0
33,33000,1.7892738580703735,1.7892738580703735,1.7892738580703735,0.0
34,34000,-0.733761727809906,-0.733761727809906,-0.733761727809906,0.0
35,35000,-0.6779395341873169,-0.6779395341873169,-0.6779395341873169,0.0
36,36000,-1.5790011882781982,-1.5790011882781982,-1.5790011882781982,0.0
37,37000,-0.8718130588531494,-0.8718130588531494,-0.8718130588531494,0.0
38,38000,-2.700827121734619,-2.700827121734619,-2.700827121734619,0.0
39,39000,-1.3748005628585815,-1.3748005628585815,-1.3748005628585815,0.0
40,40000,-0.5264955759048462,-0.5264955759048462,-0.5264955759048462,0.0
41,41000,-1.919143557548523,-1.919143557548523,-1.919143557548523,0.0
42,42000,9.888087272644043,9.888087272644043,9.888087272644043,0.0
43,43000,-3.3123223781585693,-3.3123223781585693,-3.3123223781585693,0.0
44,44000,-3.1777424812316895,-3.1777424812316895,-3.1777424812316895,0.0
45,45000,0.17893439531326294,0.17893439531326294,0.17893439531326294,0.0
46,46000,2.1750378608703613,2.1750378608703613,2.1750378608703613,0.0
47,47000,-1.968272089958191,-1.968272089958191,-1.968272089958191,0.0
48,48000,10.210125923156738,10.210125923156738,10.210125923156738,0.0
49,49000,1.528907299041748,1.528907299041748,1.528907299041748,0.0
50,50000,-3.1617889404296875,-3.1617889404296875,-3.1617889404296875,0.0
51,51000,21.9028377532959,21.9028377532959,21.9028377532959,0.0
52,52000,-3.0837650299072266,-3.0837650299072266,-3.0837650299072266,0.0
53,53000,-15.73106575012207,-15.73106575012207,-15.73106575012207,0.0
54,54000,93.6880111694336,93.6880111694336,93.6880111694336,0.0
55,55000,-85.2455062866211,-85.2455062866211,-85.2455062866211,0.0
56,56000,-35.91766357421875,-35.91766357421875,-35.91766357421875,0.0
57,57000,39.59175109863281,39.59175109863281,39.59175109863281,0.0
58,58000,76.3628158569336,76.3628158569336,76.3628158569336,0.0
59,59000,-41.534202575683594,-41.534202575683594,-41.534202575683594,0.0
60,60000,-119.91612243652344,-119.91612243652344,-119.91612243652344,0.0
61,61000,-356.791259765625,-356.791259765625,-356.791259765625,0.0
62,62000,-82.18341064453125,-82.18341064453125,-82.18341064453125,0.0
63,63000,1543.7125244140625,1543.7125244140625,1543.7125244140625,0.0
64,64000,757.63232421875,757.63232421875,757.63232421875,0.0
65,65000,1399.7467041015625,1399.7467041015625,1399.7467041015625,0.0
66,66000,-1637.0443115234375,-1637.0443115234375,-1637.0443115234375,0.0
67,67000,2094.84326171875,2094.84326171875,2094.84326171875,0.0
68,68000,-467.09014892578125,-467.09014892578125,-467.09014892578125,0.0
69,69000,-919.4150390625,-919.4150390625,-919.4150390625,0.0
70,70000,-4086.3974609375,-4086.3974609375,-4086.3974609375,0.0
71,71000,3785.976318359375,3785.976318359375,3785.976318359375,0.0
72,72000,2563.992431640625,2563.992431640625,2563.992431640625,0.0
73,73000,-7703.9775390625,-7703.9775390625,-7703.9775390625,0.0
74,74000,-2402.681396484375,-2402.681396484375,-2402.681396484375,0.0
75,75000,6145.138671875,6145.138671875,6145.138671875,0.0
76,76000,101.013671875,101.013671875,101.013671875,0.0
77,77000,10170.41796875,10170.41796875,10170.41796875,0.0
78,78000,-1203.0556640625,-1203.0556640625,-1203.0556640625,0.0
79,79000,3252.7607421875,3252.7607421875,3252.7607421875,0.0
80,80000,2124.85693359375,2124.85693359375,2124.85693359375,0.0
81,81000,-22718.998046875,-22718.998046875,-22718.998046875,0.0
82,82000,-7585.37744140625,-7585.37744140625,-7585.37744140625,0.0
83,83000,-181.38330078125,-181.38330078125,-181.38330078125,0.0
84,84000,4074.50341796875,4074.50341796875,4074.50341796875,0.0
85,85000,-28085.052734375,-28085.052734375,-28085.052734375,0.0
86,86000,-23356.265625,-23356.265625,-23356.265625,0.0
87,87000,-1477.5751953125,-1477.5751953125,-1477.5751953125,0.0
88,88000,6314.205078125,6314.205078125,6314.205078125,0.0
89,89000,-46026.86328125,-46026.86328125,-46026.86328125,0.0
90,90000,28023.7734375,28023.7734375,28023.7734375,0.0
91,91000,-47257.84375,-47257.84375,-47257.84375,0.0
92,92000,-18569.47265625,-18569.47265625,-18569.47265625,0.0
93,93000,-11343.8330078125,-11343.8330078125,-11343.8330078125,0.0
94,94000,-37472.3203125,-37472.3203125,-37472.3203125,0.0
95,95000,8487.541015625,8487.541015625,8487.541015625,0.0
96,96000,31339.09375,31339.09375,31339.09375,0.0
97,97000,-82952.1328125,-82952.1328125,-82952.1328125,0.0
98,98000,20176.48828125,20176.48828125,20176.48828125,0.0
99,99000,5895.8046875,5895.8046875,5895.8046875,0.0
100,100000,-131507.90625,-131507.90625,-131507.90625,0.0
101,101000,86314.6875,86314.6875,86314.6875,0.0
102,102000,143395.21875,143395.21875,143395.21875,0.0
103,103000,-15567.32421875,-15567.32421875,-15567.32421875,0.0
104,104000,-78155.3828125,-78155.3828125,-78155.3828125,0.0
105,105000,26432.505859375,26432.505859375,26432.505859375,0.0
106,106000,-71038.984375,-71038.984375,-71038.984375,0.0
107,107000,57476.46875,57476.46875,57476.46875,0.0
108,108000,-212151.34375,-212151.34375,-212151.34375,0.0
109,109000,153088.28125,153088.28125,153088.28125,0.0
110,110000,-145901.234375,-145901.234375,-145901.234375,0.0
111,111000,276780.15625,276780.15625,276780.15625,0.0
112,112000,-138617.1875,-138617.1875,-138617.1875,0.0
113,113000,-168495.59375,-168495.59375,-168495.59375,0.0
114,114000,-155202.75,-155202.75,-155202.75,0.0
115,115000,-122927.6875,-122927.6875,-122927.6875,0.0
116,116000,102868.34375,102868.34375,102868.34375,0.0
117,117000,280659.65625,280659.65625,280659.65625,0.0
118,118000,703349.9375,703349.9375,703349.9375,0.0
119,119000,120806.6953125,120806.6953125,120806.6953125,0.0
120,120000,232171.71875,232171.71875,232171.71875,0.0
121,121000,338254.15625,338254.15625,338254.15625,0.0
122,122000,-162982.5625,-162982.5625,-162982.5625,0.0
123,123000,782567.375,782567.375,782567.375,0.0
124,124000,8216.296875,8216.296875,8216.296875,0.0
125,125000,190608.28125,190608.28125,190608.28125,0.0
126,126000,150929.59375,150929.59375,150929.59375,0.0
127,127000,-290926.28125,-290926.28125,-290926.28125,0.0
128,128000,-271707.3125,-271707.3125,-271707.3125,0.0
129,129000,308857.34375,308857.34375,308857.34375,0.0
130,130000,248863.359375,248863.359375,248863.359375,0.0
131,131000,296506.125,296506.125,296506.125,0.0
132,132000,82234.3984375,82234.3984375,82234.3984375,0.0
133,133000,-310970.96875,-310970.96875,-310970.96875,0.0
134,134000,-55702.984375,-55702.984375,-55702.984375,0.0
135,135000,-262525.8125,-262525.8125,-262525.8125,0.0
136,136000,130494.0625,130494.0625,130494.0625,0.0
137,137000,-586327.375,-586327.375,-586327.375,0.0
138,138000,822865.625,822865.625,822865.625,0.0
139,139000,-1393748.0,-1393748.0,-1393748.0,0.0
140,140000,178149.828125,178149.828125,178149.828125,0.0
141,141000,-20226.703125,-20226.703125,-20226.703125,0.0
142,142000,422888.6875,422888.6875,422888.6875,0.0
143,143000,96005.125,96005.125,96005.125,0.0
144,144000,-1206495.75,-1206495.75,-1206495.75,0.0
145,145000,-244231.15625,-244231.15625,-244231.15625,0.0
146,146000,28151.8125,28151.8125,28151.8125,0.0
147,147000,-43130.546875,-43130.546875,-43130.546875,0.0
148,148000,130342.125,130342.125,130342.125,0.0
149,149000,800282.25,800282.25,800282.25,0.0
150,150000,-581364.125,-581364.125,-581364.125,0.0
151,151000,-1464104.125,-1464104.125,-1464104.125,0.0
152,152000,881523.75,881523.75,881523.75,0.0
153,153000,1068617.5,1068617.5,1068617.5,0.0
154,154000,-2100223.5,-2100223.5,-2100223.5,0.0
155,155000,997588.125,997588.125,997588.125,0.0
156,156000,-1015179.4375,-1015179.4375,-1015179.4375,0.0
157,157000,-59022.0625,-59022.0625,-59022.0625,0.0
158,158000,1644810.75,1644810.75,1644810.75,0.0
159,159000,-1209469.75,-1209469.75,-1209469.75,0.0
160,160000,-965882.0625,-965882.0625,-965882.0625,0.0
161,161000,-1038869.5,-1038869.5,-1038869.5,0.0
162,162000,1027528.9375,1027528.9375,1027528.9375,0.0
163,163000,-2141602.5,-2141602.5,-2141602.5,0.0
164,164000,-1451066.0,-1451066.0,-1451066.0,0.0
165,165000,-524356.9375,-524356.9375,-524356.9375,0.0
166,166000,1017525.25,1017525.25,1017525.25,0.0
167,167000,-2407205.25,-2407205.25,-2407205.25,0.0
168,168000,-1408989.5,-1408989.5,-1408989.5,0.0
169,169000,-480926.8125,-480926.8125,-480926.8125,0.0
170,170000,-3103438.25,-3103438.25,-3103438.25,0.0
171,171000,186227.625,186227.625,186227.625,0.0
172,172000,554515.0,554515.0,554515.0,0.0
173,173000,-333317.8125,-333317.8125,-333317.8125,0.0
174,174000,424046.25,424046.25,424046.25,0.0
175,175000,446129.375,446129.375,446129.375,0.0
176,176000,3830749.0,3830749.0,3830749.0,0.0
177,177000,617292.625,617292.625,617292.625,0.0
178,178000,-13976.1875,-13976.1875,-13976.1875,0.0
179,179000,1825101.875,1825101.875,1825101.875,0.0
180,180000,-610588.0625,-610588.0625,-610588.0625,0.0
181,181000,3296285.75,3296285.75,3296285.75,0.0
182,182000,-1731944.875,-1731944.875,-1731944.875,0.0
183,183000,-690053.125,-690053.125,-690053.125,0.0
184,184000,-2795848.5,-2795848.5,-2795848.5,0.0
185,185000,1150126.0,1150126.0,1150126.0,0.0
186,186000,-1336643.125,-1336643.125,-1336643.125,0.0
187,187000,-1342505.75,-1342505.75,-1342505.75,0.0
188,188000,3240880.5,3240880.5,3240880.5,0.0
189,189000,2565503.75,2565503.75,2565503.75,0.0
190,190000,6100306.0,6100306.0,6100306.0,0.0
191,191000,-1162544.0,-1162544.0,-1162544.0,0.0
192,192000,2290324.5,2290324.5,2290324.5,0.0
193,193000,-9143722.0,-9143722.0,-9143722.0,0.0
194,194000,-2272951.75,-2272951.75,-2272951.75,0.0
195,195000,3166516.75,3166516.75,3166516.75,0.0
196,196000,2088091.25,2088091.25,2088091.25,0.0
197,197000,-2854093.5,-2854093.5,-2854093.5,0.0
198,198000,6458068.5,6458068.5,6458068.5,0.0
199,199000,423180.40625,423180.40625,423180.40625,0.0
200,200000,1677164.25,1677164.25,1677164.25,0.0
201,201000,-390031.25,-390031.25,-390031.25,0.0
202,202000,3778961.0,3778961.0,3778961.0,0.0
203,203000,-762300.625,-762300.625,-762300.625,0.0
204,204000,-369651.75,-369651.75,-369651.75,0.0
205,205000,1485539.25,1485539.25,1485539.25,0.0
206,206000,-5945405.0,-5945405.0,-5945405.0,0.0
207,207000,796948.375,796948.375,796948.375,0.0
208,208000,-2250217.5,-2250217.5,-2250217.5,0.0
209,209000,-3045382.0,-3045382.0,-3045382.0,0.0
210,210000,-331209.375,-331209.375,-331209.375,0.0
211,211000,-1600062.875,-1600062.875,-1600062.875,0.0
212,212000,-8410470.0,-8410470.0,-8410470.0,0.0
213,213000,86044.25,86044.25,86044.25,0.0
214,214000,-3266983.0,-3266983.0,-3266983.0,0.0
215,215000,5934001.5,5934001.5,5934001.5,0.0
216,216000,3545669.0,3545669.0,3545669.0,0.0
217,217000,2427716.75,2427716.75,2427716.75,0.0
218,218000,-8230687.5,-8230687.5,-8230687.5,0.0
219,219000,-1622296.75,-1622296.75,-1622296.75,0.0
220,220000,6756253.0,6756253.0,6756253.0,0.0
221,221000,5252242.0,5252242.0,5252242.0,0.0
222,222000,-2975789.5,-2975789.5,-2975789.5,0.0
223,223000,-2170666.25,-2170666.25,-2170666.25,0.0
224,224000,5469884.0,5469884.0,5469884.0,0.0
225,225000,1767001.75,1767001.75,1767001.75,0.0
226,226000,-274199.875,-274199.875,-274199.875,0.0
227,227000,3670353.25,3670353.25,3670353.25,0.0
228,228000,1078079.5,1078079.5,1078079.5,0.0
229,229000,-11072356.0,-11072356.0,-11072356.0,0.0
230,230000,10588049.0,10588049.0,10588049.0,0.0
231,231000,-11066932.0,-11066932.0,-11066932.0,0.0
232,232000,-387205.0,-387205.0,-387205.0,0.0
233,233000,-1958770.5,-1958770.5,-1958770.5,0.0
